{
  "format": "sleep_stage_lr_v1",
  "labels": [
    "W",
    "N1",
    "N2",
    "N3",
    "REM"
  ],
  "label_to_id": {
    "W": 0,
    "N1": 1,
    "N2": 2,
    "N3": 3,
    "REM": 4
  },
  "feature_order": [
    "log_delta",
    "log_theta",
    "log_alpha",
    "log_sigma",
    "log_beta",
    "log_delta_over_beta",
    "log_sigma_over_theta",
    "log_thetaalpha_over_beta",
    "sef95",
    "spec_entropy",
    "rms",
    "zero_cross_rate"
  ],
  "means": [
    -22.331802368164062,
    -24.397289276123047,
    -25.743223190307617,
    -26.402225494384766,
    -26.546798706054688,
    4.214993476867676,
    -2.0049359798431396,
    2.361865520477295,
    8.007974624633789,
    2.9092788696289062,
    2.0313264030846767e-05,
    0.0842948630452156
  ],
  "stds": [
    1.1829572916030884,
    0.4911311864852905,
    0.3490687608718872,
    0.5115553140640259,
    0.3959295451641083,
    1.306697964668274,
    0.5387573838233948,
    0.6098589897155762,
    3.4724528789520264,
    0.45556798577308655,
    1.0178369848290458e-05,
    0.03330378606915474
  ],
  "W": [
    [
      -0.004339134320616722,
      -1.0512455701828003,
      1.3466871976852417,
      -2.047595739364624,
      0.3612864911556244,
      -0.11339738219976425,
      -0.9858927726745605,
      -0.22838787734508514,
      0.3611123561859131,
      0.40840476751327515,
      2.2276034355163574,
      1.3095165491104126
    ],
    [
      -0.5634723901748657,
      -0.2682851254940033,
      -0.41918861865997314,
      -0.6458674073219299,
      0.6761465072631836,
      -0.7149838805198669,
      -0.3686991333961487,
      -0.612909197807312,
      0.09402799606323242,
      0.4628537893295288,
      -0.31794998049736023,
      0.821704089641571
    ],
    [
      0.131379172205925,
      0.42400917410850525,
      -0.6424850225448608,
      1.709810495376587,
      -0.21408069133758545,
      0.1838100403547287,
      1.2369418144226074,
      0.2835305631160736,
      -0.1886923462152481,
      0.41069328784942627,
      -1.1122334003448486,
      -0.421636164188385
    ],
    [
      1.9268707036972046,
      0.8673789501190186,
      0.40017154812812805,
      1.579830527305603,
      -0.1699422150850296,
      1.7958862781524658,
      0.7093647122383118,
      0.8379111289978027,
      -1.0912206172943115,
      -0.3058040142059326,
      0.4472958445549011,
      -1.7302284240722656
    ],
    [
      -1.4904383420944214,
      0.028142597526311874,
      -0.6851851344108582,
      -0.5961777567863464,
      -0.6534100770950317,
      -1.1513150930404663,
      -0.5917145609855652,
      -0.2801446318626404,
      0.8247725963592529,
      -0.9761478900909424,
      -1.244715929031372,
      0.020643945783376694
    ]
  ],
  "b": [
    -1.2508232593536377,
    -1.232494831085205,
    3.9400134086608887,
    -0.7978888154029846,
    -0.658806562423706
  ],
  "notes": {
    "trained_from": "/mnt/data/epochs.parquet",
    "filters": {
      "label_id>=0": true,
      "in_sleep_window_only": true
    }
  }
}