{
  "format": "sleep_stage_lr_v1",
  "labels": [
    "W",
    "N1",
    "N2",
    "N3",
    "REM"
  ],
  "label_to_id": {
    "W": 0,
    "N1": 1,
    "N2": 2,
    "N3": 3,
    "REM": 4
  },
  "feature_order": [
    "log_delta",
    "log_theta",
    "log_alpha",
    "log_sigma",
    "log_beta",
    "log_delta_over_beta",
    "log_sigma_over_theta",
    "log_thetaalpha_over_beta",
    "sef95",
    "spec_entropy",
    "rms",
    "zero_cross_rate"
  ],
  "means": [
    -22.481279373168945,
    -24.929170608520508,
    -25.514127731323242,
    -26.19352149963379,
    -25.86264419555664,
    3.381366014480591,
    -1.264349102973938,
    1.3246793746948242,
    11.020883560180664,
    2.51426100730896,
    0.00028212351026013494,
    0.043319813907146454
  ],
  "stds": [
    1.8614221811294556,
    1.1696503162384033,
    1.0531071424484253,
    0.904691219329834,
    1.1309221982955933,
    1.6018275022506714,
    0.7035854458808899,
    0.8825171589851379,
    6.813479900360107,
    0.8654079437255859,
    0.0005418258369900286,
    0.09501225501298904
  ],
  "W": [
    [
      1.2227842807769775,
      -2.2866878509521484,
      -0.19290082156658173,
      -2.283334732055664,
      4.678671836853027,
      -1.8822945356369019,
      0.8654050230979919,
      2.829092025756836,
      0.07252724468708038,
      -0.4760846197605133,
      -0.27312275767326355,
      -0.1664585918188095
    ],
    [
      0.764805018901825,
      -1.4152337312698364,
      -0.8105383515357971,
      -1.3279297351837158,
      3.1352291107177734,
      -1.324790358543396,
      0.6452289819717407,
      2.359856605529785,
      0.7794908285140991,
      -0.7338371276855469,
      -0.22879156470298767,
      -0.12635092437267303
    ],
    [
      -0.2978326380252838,
      0.6485226154327393,
      -0.13947901129722595,
      1.2011297941207886,
      -1.289942979812622,
      0.56464022397995,
      0.46638259291648865,
      0.021498266607522964,
      0.44085487723350525,
      -0.03558608889579773,
      0.09073185175657272,
      -0.05598470941185951
    ],
    [
      -2.05090594291687,
      3.7329020500183105,
      2.43351149559021,
      3.4013333320617676,
      -8.885066986083984,
      3.8897552490234375,
      -1.8320982456207275,
      -6.890154838562012,
      -1.6182384490966797,
      1.62345290184021,
      0.6725452542304993,
      0.4577961266040802
    ],
    [
      0.3611493706703186,
      -0.6795032024383545,
      -1.2905933856964111,
      -0.9911984205245972,
      2.361109495162964,
      -1.2473105192184448,
      -0.14491835236549377,
      1.6797080039978027,
      0.32536551356315613,
      -0.3779451251029968,
      -0.261362761259079,
      -0.10900189727544785
    ]
  ],
  "b": [
    -0.5955621600151062,
    -0.6971346735954285,
    2.6748037338256836,
    -2.1554644107818604,
    0.7733574509620667
  ],
  "notes": {
    "trained_from": "epochs\\epochs_boas_headband_stagehum.parquet",
    "filters": {
      "label_id>=0": true,
      "in_sleep_window_only": true
    }
  }
}